<?xml version="1.0"?>
<opencv_storage>
<cascade>
  <stageType>BOOST</stageType>
  <featureType>HAAR</featureType>
  <height>32</height>
  <width>32</width>
  <stageParams>
    <boostType>GAB</boostType>
    <minHitRate>9.9500000476837158e-01</minHitRate>
    <maxFalseAlarm>5.0000000000000000e-01</maxFalseAlarm>
    <weightTrimRate>9.4999999999999996e-01</weightTrimRate>
    <maxDepth>1</maxDepth>
    <maxWeakCount>100</maxWeakCount></stageParams>
  <featureParams>
    <maxCatCount>0</maxCatCount>
    <featSize>1</featSize>
    <mode>BASIC</mode></featureParams>
  <stageNum>15</stageNum>
  <stages>
    <!-- stage 0 -->
    <_>
      <maxWeakCount>4</maxWeakCount>
      <stageThreshold>-3.3014467358589172e-01</stageThreshold>
      <weakClassifiers>
        <_>
          <internalNodes>
            0 -1 4 2.9165394604206085e-02</internalNodes>
          <leafValues>
            -7.2277230024337769e-01 9.5447325706481934e-01</leafValues></_>
        <_>
          <internalNodes>
            0 -1 119 -2.7816479559987783e-03</internalNodes>
          <leafValues>
            8.8341695070266724e-01 -4.7688323259353638e-01</leafValues></_>
        <_>
          <internalNodes>
            0 -1 116 7.9628935054643080e-06</internalNodes>
          <leafValues>
            4.6680393815040588e-01 -9.8017561435699463e-01</leafValues></_>
        <_>
          <internalNodes>
            0 -1 116 -8.0095460361917503e-06</internalNodes>
          <leafValues>
            -9.9345374107360840e-01 4.0270689129829407e-01</leafValues></_></weakClassifiers></_>
    <!-- stage 1 -->
    <_>
      <maxWeakCount>3</maxWeakCount>
      <stageThreshold>2.2547033429145813e-01</stageThreshold>
      <weakClassifiers>
        <_>
          <internalNodes>
            0 -1 62 9.5032006502151489e-03</internalNodes>
          <leafValues>
            -6.8859058618545532e-01 8.3920264244079590e-01</leafValues></_>
        <_>
          <internalNodes>
            0 -1 114 6.2485569287673570e-06</internalNodes>
          <leafValues>
            4.5602050423622131e-01 -9.8609381914138794e-01</leafValues></_>
        <_>
          <internalNodes>
            0 -1 114 -7.4905069595843088e-06</internalNodes>
          <leafValues>
            -1. 4.5804044604301453e-01</leafValues></_></weakClassifiers></_>
    <!-- stage 2 -->
    <_>
      <maxWeakCount>4</maxWeakCount>
      <stageThreshold>-3.2695236802101135e-01</stageThreshold>
      <weakClassifiers>
        <_>
          <internalNodes>
            0 -1 59 -3.2498927321285009e-03</internalNodes>
          <leafValues>
            8.5544770956039429e-01 -5.1134377717971802e-01</leafValues></_>
        <_>
          <internalNodes>
            0 -1 140 6.0308857428026386e-06</internalNodes>
          <leafValues>
            4.7163185477256775e-01 -8.7641561031341553e-01</leafValues></_>
        <_>
          <internalNodes>
            0 -1 0 7.3504805564880371e-02</internalNodes>
          <leafValues>
            -5.1809114217758179e-01 7.1756291389465332e-01</leafValues></_>
        <_>
          <internalNodes>
            0 -1 140 -6.6134352891822346e-06</internalNodes>
          <leafValues>
            -9.9697655439376831e-01 3.4324413537979126e-01</leafValues></_></weakClassifiers></_>
    <!-- stage 3 -->
    <_>
      <maxWeakCount>11</maxWeakCount>
      <stageThreshold>-9.1226440668106079e-01</stageThreshold>
      <weakClassifiers>
        <_>
          <internalNodes>
            0 -1 10 5.0510698929429054e-03</internalNodes>
          <leafValues>
            -5.9654176235198975e-01 8.2746297121047974e-01</leafValues></_>
        <_>
          <internalNodes>
            0 -1 126 -7.2027337737381458e-03</internalNodes>
          <leafValues>
            7.1298253536224365e-01 -4.1815584897994995e-01</leafValues></_>
        <_>
          <internalNodes>
            0 -1 117 6.7819701143889688e-06</internalNodes>
          <leafValues>
            3.0301433801651001e-01 -9.0659409761428833e-01</leafValues></_>
        <_>
          <internalNodes>
            0 -1 134 -7.5056161731481552e-03</internalNodes>
          <leafValues>
            5.8411425352096558e-01 -3.1686416268348694e-01</leafValues></_>
        <_>
          <internalNodes>
            0 -1 92 -6.4533210206718650e-06</internalNodes>
          <leafValues>
            -9.5313680171966553e-01 2.0312491059303284e-01</leafValues></_>
        <_>
          <internalNodes>
            0 -1 15 4.9789983779191971e-02</internalNodes>
          <leafValues>
            -2.3747166991233826e-01 8.1924891471862793e-01</leafValues></_>
        <_>
          <internalNodes>
            0 -1 96 -6.2891831476008520e-06</internalNodes>
          <leafValues>
            -8.6748129129409790e-01 1.8126387894153595e-01</leafValues></_>
        <_>
          <internalNodes>
            0 -1 96 6.4617320276738610e-06</internalNodes>
          <leafValues>
            1.5945252776145935e-01 -9.8815047740936279e-01</leafValues></_>
        <_>
          <internalNodes>
            0 -1 125 -1.5737525245640427e-04</internalNodes>
          <leafValues>
            3.1443330645561218e-01 -5.1724213361740112e-01</leafValues></_>
        <_>
          <internalNodes>
            0 -1 129 7.9480197746306658e-04</internalNodes>
          <leafValues>
            -2.5106003880500793e-01 7.8872305154800415e-01</leafValues></_>
        <_>
          <internalNodes>
            0 -1 32 -1.7006643116474152e-02</internalNodes>
          <leafValues>
            8.0746734142303467e-01 -1.3698121905326843e-01</leafValues></_></weakClassifiers></_>
    <!-- stage 4 -->
    <_>
      <maxWeakCount>10</maxWeakCount>
      <stageThreshold>-1.2197686433792114e+00</stageThreshold>
      <weakClassifiers>
        <_>
          <internalNodes>
            0 -1 136 5.9106443077325821e-03</internalNodes>
          <leafValues>
            -6.2212556600570679e-01 8.6509859561920166e-01</leafValues></_>
        <_>
          <internalNodes>
            0 -1 43 5.9048213064670563e-02</internalNodes>
          <leafValues>
            -3.8956132531166077e-01 6.5578722953796387e-01</leafValues></_>
        <_>
          <internalNodes>
            0 -1 114 8.1081107055069879e-06</internalNodes>
          <leafValues>
            2.1714755892753601e-01 -9.8819082975387573e-01</leafValues></_>
        <_>
          <internalNodes>
            0 -1 150 3.6517106927931309e-03</internalNodes>
          <leafValues>
            -3.5831263661384583e-01 5.6505453586578369e-01</leafValues></_>
        <_>
          <internalNodes>
            0 -1 80 -1.8519065342843533e-03</internalNodes>
          <leafValues>
            7.4002867937088013e-01 -1.7627564072608948e-01</leafValues></_>
        <_>
          <internalNodes>
            0 -1 73 8.1222533481195569e-06</internalNodes>
          <leafValues>
            1.6514264047145844e-01 -7.9354053735733032e-01</leafValues></_>
        <_>
          <internalNodes>
            0 -1 122 1.7578011465957388e-05</internalNodes>
          <leafValues>
            -3.5538354516029358e-01 4.3610864877700806e-01</leafValues></_>
        <_>
          <internalNodes>
            0 -1 94 -7.0857590799278114e-06</internalNodes>
          <leafValues>
            -1. 1.4138780534267426e-01</leafValues></_>
        <_>
          <internalNodes>
            0 -1 101 4.0957628516480327e-04</internalNodes>
          <leafValues>
            -2.6007831096649170e-01 6.5143799781799316e-01</leafValues></_>
        <_>
          <internalNodes>
            0 -1 145 6.5342933339707088e-06</internalNodes>
          <leafValues>
            -2.9213988780975342e-01 4.1829037666320801e-01</leafValues></_></weakClassifiers></_>
    <!-- stage 5 -->
    <_>
      <maxWeakCount>11</maxWeakCount>
      <stageThreshold>-1.1964439153671265e+00</stageThreshold>
      <weakClassifiers>
        <_>
          <internalNodes>
            0 -1 2 4.3378259986639023e-02</internalNodes>
          <leafValues>
            -5.1511591672897339e-01 8.5016983747482300e-01</leafValues></_>
        <_>
          <internalNodes>
            0 -1 58 -1.0537132620811462e-02</internalNodes>
          <leafValues>
            6.8586200475692749e-01 -2.8816169500350952e-01</leafValues></_>
        <_>
          <internalNodes>
            0 -1 78 -1.5699850337114185e-05</internalNodes>
          <leafValues>
            -9.1886925697326660e-01 2.3534435033798218e-01</leafValues></_>
        <_>
          <internalNodes>
            0 -1 68 1.9748779013752937e-03</internalNodes>
          <leafValues>
            -3.0293306708335876e-01 5.7832145690917969e-01</leafValues></_>
        <_>
          <internalNodes>
            0 -1 78 3.3171207178384066e-05</internalNodes>
          <leafValues>
            2.3255962133407593e-01 -7.8496628999710083e-01</leafValues></_>
        <_>
          <internalNodes>
            0 -1 18 3.2065537571907043e-01</internalNodes>
          <leafValues>
            -2.1236857771873474e-01 6.8611168861389160e-01</leafValues></_>
        <_>
          <internalNodes>
            0 -1 139 -2.1283320165821351e-05</internalNodes>
          <leafValues>
            -8.7004250288009644e-01 1.2531061470508575e-01</leafValues></_>
        <_>
          <internalNodes>
            0 -1 125 -5.7863333495333791e-04</internalNodes>
          <leafValues>
            2.5209248065948486e-01 -4.3018147349357605e-01</leafValues></_>
        <_>
          <internalNodes>
            0 -1 132 8.1034222603193484e-06</internalNodes>
          <leafValues>
            -2.2487612068653107e-01 5.4853308200836182e-01</leafValues></_>
        <_>
          <internalNodes>
            0 -1 139 8.2501946963020600e-06</internalNodes>
          <leafValues>
            1.2627969682216644e-01 -9.7395664453506470e-01</leafValues></_>
        <_>
          <internalNodes>
            0 -1 53 -6.4344062593590934e-06</internalNodes>
          <leafValues>
            4.3850305676460266e-01 -2.6755625009536743e-01</leafValues></_></weakClassifiers></_>
    <!-- stage 6 -->
    <_>
      <maxWeakCount>14</maxWeakCount>
      <stageThreshold>-1.1644054651260376e+00</stageThreshold>
      <weakClassifiers>
        <_>
          <internalNodes>
            0 -1 67 6.8945148959755898e-03</internalNodes>
          <leafValues>
            -6.0704910755157471e-01 7.2935420274734497e-01</leafValues></_>
        <_>
          <internalNodes>
            0 -1 157 -5.2752926945686340e-02</internalNodes>
          <leafValues>
            6.3942861557006836e-01 -3.6034309864044189e-01</leafValues></_>
        <_>
          <internalNodes>
            0 -1 124 -2.4687878976692446e-05</internalNodes>
          <leafValues>
            -9.4075250625610352e-01 2.1798557043075562e-01</leafValues></_>
        <_>
          <internalNodes>
            0 -1 46 5.3177326917648315e-03</internalNodes>
          <leafValues>
            -3.7462657690048218e-01 4.6711477637290955e-01</leafValues></_>
        <_>
          <internalNodes>
            0 -1 128 2.1282827947288752e-03</internalNodes>
          <leafValues>
            -2.3108471930027008e-01 5.9505796432495117e-01</leafValues></_>
        <_>
          <internalNodes>
            0 -1 124 8.3636741692316718e-06</internalNodes>
          <leafValues>
            1.1339014768600464e-01 -1.</leafValues></_>
        <_>
          <internalNodes>
            0 -1 36 3.8582414388656616e-02</internalNodes>
          <leafValues>
            -1.9857551157474518e-01 6.4875859022140503e-01</leafValues></_>
        <_>
          <internalNodes>
            0 -1 27 5.3872732678428292e-05</internalNodes>
          <leafValues>
            -2.3489834368228912e-01 4.4164353609085083e-01</leafValues></_>
        <_>
          <internalNodes>
            0 -1 113 1.8276032278663479e-05</internalNodes>
          <leafValues>
            1.0958736389875412e-01 -8.4884476661682129e-01</leafValues></_>
        <_>
          <internalNodes>
            0 -1 26 6.8776803345826920e-06</internalNodes>
          <leafValues>
            -3.4173715114593506e-01 3.5306951403617859e-01</leafValues></_>
        <_>
          <internalNodes>
            0 -1 95 8.4335797509993427e-06</internalNodes>
          <leafValues>
            9.8292343318462372e-02 -9.9563288688659668e-01</leafValues></_>
        <_>
          <internalNodes>
            0 -1 19 -4.1543862607795745e-05</internalNodes>
          <leafValues>
            4.8615109920501709e-01 -2.3936140537261963e-01</leafValues></_>
        <_>
          <internalNodes>
            0 -1 110 6.3811016843828838e-06</internalNodes>
          <leafValues>
            -2.9316979646682739e-01 3.7485283613204956e-01</leafValues></_>
        <_>
          <internalNodes>
            0 -1 100 1.5276444610208273e-03</internalNodes>
          <leafValues>
            -1.6737966239452362e-01 6.6971004009246826e-01</leafValues></_></weakClassifiers></_>
    <!-- stage 7 -->
    <_>
      <maxWeakCount>17</maxWeakCount>
      <stageThreshold>-1.1952024698257446e+00</stageThreshold>
      <weakClassifiers>
        <_>
          <internalNodes>
            0 -1 1 8.0108076333999634e-02</internalNodes>
          <leafValues>
            -4.6595460176467896e-01 7.3217856884002686e-01</leafValues></_>
        <_>
          <internalNodes>
            0 -1 58 -1.3641515746712685e-02</internalNodes>
          <leafValues>
            6.6749525070190430e-01 -3.1196609139442444e-01</leafValues></_>
        <_>
          <internalNodes>
            0 -1 95 -4.8315077947336249e-06</internalNodes>
          <leafValues>
            -1. 1.9504202902317047e-01</leafValues></_>
        <_>
          <internalNodes>
            0 -1 12 5.0883114454336464e-05</internalNodes>
          <leafValues>
            -5.3959101438522339e-01 2.8017982840538025e-01</leafValues></_>
        <_>
          <internalNodes>
            0 -1 114 7.9915625974535942e-06</internalNodes>
          <leafValues>
            1.2080576270818710e-01 -9.8802626132965088e-01</leafValues></_>
        <_>
          <internalNodes>
            0 -1 40 -2.0116835832595825e-02</internalNodes>
          <leafValues>
            6.4723920822143555e-01 -2.3076227307319641e-01</leafValues></_>
        <_>
          <internalNodes>
            0 -1 50 -3.7362523376941681e-02</internalNodes>
          <leafValues>
            6.5731668472290039e-01 -2.0242227613925934e-01</leafValues></_>
        <_>
          <internalNodes>
            0 -1 115 -6.8866493165842257e-06</internalNodes>
          <leafValues>
            -9.9438220262527466e-01 1.2452428042888641e-01</leafValues></_>
        <_>
          <internalNodes>
            0 -1 82 7.1225786086870357e-06</internalNodes>
          <leafValues>
            -2.6971575617790222e-01 3.8949176669120789e-01</leafValues></_>
        <_>
          <internalNodes>
            0 -1 82 -6.0790562201873399e-06</internalNodes>
          <leafValues>
            4.7210764884948730e-01 -3.2168734073638916e-01</leafValues></_>
        <_>
          <internalNodes>
            0 -1 96 9.3397466116584837e-06</internalNodes>
          <leafValues>
            1.2631180882453918e-01 -1.</leafValues></_>
        <_>
          <internalNodes>
            0 -1 71 3.0408106977120042e-04</internalNodes>
          <leafValues>
            -3.6283010244369507e-01 2.6648840308189392e-01</leafValues></_>
        <_>
          <internalNodes>
            0 -1 123 -7.8244302130769938e-06</internalNodes>
          <leafValues>
            -6.0100126266479492e-01 1.5876759588718414e-01</leafValues></_>
        <_>
          <internalNodes>
            0 -1 108 -1.6793541362858377e-05</internalNodes>
          <leafValues>
            4.1589164733886719e-01 -2.5425967574119568e-01</leafValues></_>
        <_>
          <internalNodes>
            0 -1 74 -7.0727846832596697e-06</internalNodes>
          <leafValues>
            -8.5936719179153442e-01 1.1327537894248962e-01</leafValues></_>
        <_>
          <internalNodes>
            0 -1 100 -2.2185924462974072e-03</internalNodes>
          <leafValues>
            6.7000859975814819e-01 -1.5315636992454529e-01</leafValues></_>
        <_>
          <internalNodes>
            0 -1 51 -6.8755820393562317e-05</internalNodes>
          <leafValues>
            4.1920867562294006e-01 -2.2472012042999268e-01</leafValues></_></weakClassifiers></_>
    <!-- stage 8 -->
    <_>
      <maxWeakCount>17</maxWeakCount>
      <stageThreshold>-1.3600714206695557e+00</stageThreshold>
      <weakClassifiers>
        <_>
          <internalNodes>
            0 -1 104 2.6907917112112045e-02</internalNodes>
          <leafValues>
            -4.3149152398109436e-01 7.4135285615921021e-01</leafValues></_>
        <_>
          <internalNodes>
            0 -1 61 -3.7472918629646301e-03</internalNodes>
          <leafValues>
            4.7178071737289429e-01 -4.3395918607711792e-01</leafValues></_>
        <_>
          <internalNodes>
            0 -1 102 -2.1617282181978226e-03</internalNodes>
          <leafValues>
            3.8983762264251709e-01 -3.6876302957534790e-01</leafValues></_>
        <_>
          <internalNodes>
            0 -1 75 6.4523114815528970e-06</internalNodes>
          <leafValues>
            1.6409599781036377e-01 -7.8097581863403320e-01</leafValues></_>
        <_>
          <internalNodes>
            0 -1 38 -6.2535986304283142e-02</internalNodes>
          <leafValues>
            -6.9228124618530273e-01 1.3115411996841431e-01</leafValues></_>
        <_>
          <internalNodes>
            0 -1 93 -2.6695790438679978e-05</internalNodes>
          <leafValues>
            1.8331731855869293e-01 -5.0875782966613770e-01</leafValues></_>
        <_>
          <internalNodes>
            0 -1 142 -3.2385374652221799e-05</internalNodes>
          <leafValues>
            -5.1105242967605591e-01 2.0846705138683319e-01</leafValues></_>
        <_>
          <internalNodes>
            0 -1 153 7.8193685039877892e-03</internalNodes>
          <leafValues>
            -2.0033383369445801e-01 6.5795862674713135e-01</leafValues></_>
        <_>
          <internalNodes>
            0 -1 16 -1.9403861835598946e-02</internalNodes>
          <leafValues>
            5.7837265729904175e-01 -1.5731251239776611e-01</leafValues></_>
        <_>
          <internalNodes>
            0 -1 79 -3.4390752261970192e-05</internalNodes>
          <leafValues>
            2.6917189359664917e-01 -3.3924421668052673e-01</leafValues></_>
        <_>
          <internalNodes>
            0 -1 78 -7.1973763624555431e-06</internalNodes>
          <leafValues>
            -8.7278681993484497e-01 1.0142187774181366e-01</leafValues></_>
        <_>
          <internalNodes>
            0 -1 63 1.4052048754820134e-05</internalNodes>
          <leafValues>
            -2.7877250313758850e-01 3.4217467904090881e-01</leafValues></_>
        <_>
          <internalNodes>
            0 -1 60 -6.1831801758671645e-06</internalNodes>
          <leafValues>
            4.2264470458030701e-01 -2.1718263626098633e-01</leafValues></_>
        <_>
          <internalNodes>
            0 -1 96 -3.3165630156872794e-05</internalNodes>
          <leafValues>
            -7.9378849267959595e-01 1.0897733271121979e-01</leafValues></_>
        <_>
          <internalNodes>
            0 -1 112 -1.6350884106941521e-04</internalNodes>
          <leafValues>
            3.1028848886489868e-01 -3.1253737211227417e-01</leafValues></_>
        <_>
          <internalNodes>
            0 -1 66 -3.3357104257447645e-05</internalNodes>
          <leafValues>
            5.6097996234893799e-01 -1.6869679093360901e-01</leafValues></_>
        <_>
          <internalNodes>
            0 -1 87 7.1042901254259050e-05</internalNodes>
          <leafValues>
            -3.2144638895988464e-01 2.5487792491912842e-01</leafValues></_></weakClassifiers></_>
    <!-- stage 9 -->
    <_>
      <maxWeakCount>18</maxWeakCount>
      <stageThreshold>-1.1911165714263916e+00</stageThreshold>
      <weakClassifiers>
        <_>
          <internalNodes>
            0 -1 0 7.6800256967544556e-02</internalNodes>
          <leafValues>
            -3.6162474751472473e-01 7.3548501729965210e-01</leafValues></_>
        <_>
          <internalNodes>
            0 -1 128 3.2072653993964195e-03</internalNodes>
          <leafValues>
            -2.0448681712150574e-01 7.0069503784179688e-01</leafValues></_>
        <_>
          <internalNodes>
            0 -1 140 1.5845460438868031e-05</internalNodes>
          <leafValues>
            1.8140216171741486e-01 -9.2820036411285400e-01</leafValues></_>
        <_>
          <internalNodes>
            0 -1 47 -1.8462869338691235e-03</internalNodes>
          <leafValues>
            4.1956046223640442e-01 -3.5281276702880859e-01</leafValues></_>
        <_>
          <internalNodes>
            0 -1 117 -5.4047714002081193e-06</internalNodes>
          <leafValues>
            -1. 1.3145519793033600e-01</leafValues></_>
        <_>
          <internalNodes>
            0 -1 135 -1.3488444892573170e-05</internalNodes>
          <leafValues>
            2.5673243403434753e-01 -4.3299534916877747e-01</leafValues></_>
        <_>
          <internalNodes>
            0 -1 120 -6.5011017795768566e-06</internalNodes>
          <leafValues>
            -1. 4.8139289021492004e-02</leafValues></_>
        <_>
          <internalNodes>
            0 -1 68 8.9817983098328114e-04</internalNodes>
          <leafValues>
            -3.3695384860038757e-01 3.1575918197631836e-01</leafValues></_>
        <_>
          <internalNodes>
            0 -1 77 -6.9754782998643350e-06</internalNodes>
          <leafValues>
            -7.6733976602554321e-01 9.8024815320968628e-02</leafValues></_>
        <_>
          <internalNodes>
            0 -1 125 -4.3545672087930143e-04</internalNodes>
          <leafValues>
            1.6021710634231567e-01 -5.1945286989212036e-01</leafValues></_>
        <_>
          <internalNodes>
            0 -1 132 1.6959071217570454e-05</internalNodes>
          <leafValues>
            -1.8960571289062500e-01 5.6578695774078369e-01</leafValues></_>
        <_>
          <internalNodes>
            0 -1 147 1.5734963119029999e-01</internalNodes>
          <leafValues>
            -1.4865602552890778e-01 5.4005777835845947e-01</leafValues></_>
        <_>
          <internalNodes>
            0 -1 77 6.4598393691994715e-06</internalNodes>
          <leafValues>
            9.7014337778091431e-02 -7.5673896074295044e-01</leafValues></_>
        <_>
          <internalNodes>
            0 -1 39 1.0057966574095190e-04</internalNodes>
          <leafValues>
            -3.4959381818771362e-01 2.2053071856498718e-01</leafValues></_>
        <_>
          <internalNodes>
            0 -1 146 6.0130714700790122e-06</internalNodes>
          <leafValues>
            -1.8939529359340668e-01 4.1427248716354370e-01</leafValues></_>
        <_>
          <internalNodes>
            0 -1 131 1.7102969577535987e-03</internalNodes>
          <leafValues>
            -1.3621240854263306e-01 5.6254380941390991e-01</leafValues></_>
        <_>
          <internalNodes>
            0 -1 127 -1.9896997400792316e-05</internalNodes>
          <leafValues>
            -4.6309641003608704e-01 2.0038467645645142e-01</leafValues></_>
        <_>
          <internalNodes>
            0 -1 141 5.3103217396710534e-06</internalNodes>
          <leafValues>
            6.5611615777015686e-02 -9.6472364664077759e-01</leafValues></_></weakClassifiers></_>
    <!-- stage 10 -->
    <_>
      <maxWeakCount>20</maxWeakCount>
      <stageThreshold>-1.4479243755340576e+00</stageThreshold>
      <weakClassifiers>
        <_>
          <internalNodes>
            0 -1 2 3.4016616642475128e-02</internalNodes>
          <leafValues>
            -5.9636813402175903e-01 6.7584002017974854e-01</leafValues></_>
        <_>
          <internalNodes>
            0 -1 83 -1.2140214676037431e-03</internalNodes>
          <leafValues>
            4.3004196882247925e-01 -4.9525791406631470e-01</leafValues></_>
        <_>
          <internalNodes>
            0 -1 106 6.6079497337341309e-02</internalNodes>
          <leafValues>
            -2.1357542276382446e-01 6.3017356395721436e-01</leafValues></_>
        <_>
          <internalNodes>
            0 -1 28 8.8592685759067535e-02</internalNodes>
          <leafValues>
            -1.1990123987197876e-01 7.6680654287338257e-01</leafValues></_>
        <_>
          <internalNodes>
            0 -1 30 -5.6150328367948532e-02</internalNodes>
          <leafValues>
            6.8981450796127319e-01 -1.1545031517744064e-01</leafValues></_>
        <_>
          <internalNodes>
            0 -1 34 -4.1186880320310593e-02</internalNodes>
          <leafValues>
            -5.1984685659408569e-01 1.7975443601608276e-01</leafValues></_>
        <_>
          <internalNodes>
            0 -1 152 6.9995207923057023e-06</internalNodes>
          <leafValues>
            -2.4874994158744812e-01 3.7099254131317139e-01</leafValues></_>
        <_>
          <internalNodes>
            0 -1 121 1.6194604540942237e-05</internalNodes>
          <leafValues>
            1.3863098621368408e-01 -8.2750660181045532e-01</leafValues></_>
        <_>
          <internalNodes>
            0 -1 72 2.1473921151482500e-05</internalNodes>
          <leafValues>
            -4.9434441328048706e-01 1.6301144659519196e-01</leafValues></_>
        <_>
          <internalNodes>
            0 -1 91 2.6468842406757176e-05</internalNodes>
          <leafValues>
            8.5843443870544434e-02 -7.6417481899261475e-01</leafValues></_>
        <_>
          <internalNodes>
            0 -1 163 7.8029897849773988e-06</internalNodes>
          <leafValues>
            -2.4690757691860199e-01 3.1682944297790527e-01</leafValues></_>
        <_>
          <internalNodes>
            0 -1 25 2.3647765628993511e-03</internalNodes>
          <leafValues>
            -1.7404347658157349e-01 4.3104267120361328e-01</leafValues></_>
        <_>
          <internalNodes>
            0 -1 31 -1.4702342014061287e-05</internalNodes>
          <leafValues>
            2.8201827406883240e-01 -2.4226284027099609e-01</leafValues></_>
        <_>
          <internalNodes>
            0 -1 100 2.6043821126222610e-03</internalNodes>
          <leafValues>
            -1.0375290364027023e-01 6.7803251743316650e-01</leafValues></_>
        <_>
          <internalNodes>
            0 -1 141 -3.8743659388273954e-05</internalNodes>
          <leafValues>
            -5.8834159374237061e-01 1.9185560941696167e-01</leafValues></_>
        <_>
          <internalNodes>
            0 -1 99 -4.2145977204199880e-05</internalNodes>
          <leafValues>
            2.6804655790328979e-01 -3.0647209286689758e-01</leafValues></_>
        <_>
          <internalNodes>
            0 -1 69 3.4121744101867080e-04</internalNodes>
          <leafValues>
            -3.4001690149307251e-01 2.2078698873519897e-01</leafValues></_>
        <_>
          <internalNodes>
            0 -1 86 2.6026717387139797e-04</internalNodes>
          <leafValues>
            -2.2570163011550903e-01 3.3274739980697632e-01</leafValues></_>
        <_>
          <internalNodes>
            0 -1 80 1.5431362044182606e-05</internalNodes>
          <leafValues>
            -1.8628858029842377e-01 4.6029704809188843e-01</leafValues></_>
        <_>
          <internalNodes>
            0 -1 80 -6.0704724091920070e-06</internalNodes>
          <leafValues>
            2.6260009407997131e-01 -3.1112813949584961e-01</leafValues></_></weakClassifiers></_>
    <!-- stage 11 -->
    <_>
      <maxWeakCount>21</maxWeakCount>
      <stageThreshold>-1.2984720468521118e+00</stageThreshold>
      <weakClassifiers>
        <_>
          <internalNodes>
            0 -1 89 -1.3709379360079765e-02</internalNodes>
          <leafValues>
            6.7618745565414429e-01 -4.8253849148750305e-01</leafValues></_>
        <_>
          <internalNodes>
            0 -1 33 9.2234097421169281e-02</internalNodes>
          <leafValues>
            -5.0331312417984009e-01 4.4133970141410828e-01</leafValues></_>
        <_>
          <internalNodes>
            0 -1 156 -5.2208718843758106e-03</internalNodes>
          <leafValues>
            4.7752031683921814e-01 -2.2513052821159363e-01</leafValues></_>
        <_>
          <internalNodes>
            0 -1 158 2.0392630249261856e-02</internalNodes>
          <leafValues>
            -1.4470070600509644e-01 7.0782315731048584e-01</leafValues></_>
        <_>
          <internalNodes>
            0 -1 115 6.7873174884880427e-06</internalNodes>
          <leafValues>
            1.1589391529560089e-01 -9.8037433624267578e-01</leafValues></_>
        <_>
          <internalNodes>
            0 -1 44 -5.5314034223556519e-02</internalNodes>
          <leafValues>
            6.1177253723144531e-01 -1.8869049847126007e-01</leafValues></_>
        <_>
          <internalNodes>
            0 -1 144 6.1645064306503627e-06</internalNodes>
          <leafValues>
            -3.2962918281555176e-01 2.8861030936241150e-01</leafValues></_>
        <_>
          <internalNodes>
            0 -1 95 5.5015566431393381e-06</internalNodes>
          <leafValues>
            7.1498669683933258e-02 -9.9537849426269531e-01</leafValues></_>
        <_>
          <internalNodes>
            0 -1 105 -1.3292846233525779e-05</internalNodes>
          <leafValues>
            3.3444258570671082e-01 -2.6010450720787048e-01</leafValues></_>
        <_>
          <internalNodes>
            0 -1 8 -3.8704559206962585e-02</internalNodes>
          <leafValues>
            -7.1904635429382324e-01 1.0831019282341003e-01</leafValues></_>
        <_>
          <internalNodes>
            0 -1 14 -2.3548014461994171e-02</internalNodes>
          <leafValues>
            -6.9640576839447021e-01 1.0345271229743958e-01</leafValues></_>
        <_>
          <internalNodes>
            0 -1 37 -6.9361640271381475e-06</internalNodes>
          <leafValues>
            3.4934094548225403e-01 -2.3848682641983032e-01</leafValues></_>
        <_>
          <internalNodes>
            0 -1 64 -1.7185442629852332e-05</internalNodes>
          <leafValues>
            4.6807655692100525e-01 -1.5968096256256104e-01</leafValues></_>
        <_>
          <internalNodes>
            0 -1 109 -2.1815551444888115e-03</internalNodes>
          <leafValues>
            5.9093368053436279e-01 -1.0855989903211594e-01</leafValues></_>
        <_>
          <internalNodes>
            0 -1 139 -6.5003350755432621e-06</internalNodes>
          <leafValues>
            -8.3256858587265015e-01 1.0139944404363632e-01</leafValues></_>
        <_>
          <internalNodes>
            0 -1 107 1.3870227121515200e-05</internalNodes>
          <leafValues>
            -2.9373306035995483e-01 2.6258516311645508e-01</leafValues></_>
        <_>
          <internalNodes>
            0 -1 73 6.5003350755432621e-06</internalNodes>
          <leafValues>
            1.0647220909595490e-01 -6.9261515140533447e-01</leafValues></_>
        <_>
          <internalNodes>
            0 -1 7 5.1303264626767486e-05</internalNodes>
          <leafValues>
            -2.6915532350540161e-01 2.7443310618400574e-01</leafValues></_>
        <_>
          <internalNodes>
            0 -1 21 -8.3194654434919357e-03</internalNodes>
          <leafValues>
            5.4022872447967529e-01 -1.4080117642879486e-01</leafValues></_>
        <_>
          <internalNodes>
            0 -1 98 -2.2683535644318908e-04</internalNodes>
          <leafValues>
            1.6158050298690796e-01 -5.5723601579666138e-01</leafValues></_>
        <_>
          <internalNodes>
            0 -1 57 -5.6539784054621123e-06</internalNodes>
          <leafValues>
            -5.2205634117126465e-01 1.7396849393844604e-01</leafValues></_></weakClassifiers></_>
    <!-- stage 12 -->
    <_>
      <maxWeakCount>20</maxWeakCount>
      <stageThreshold>-1.1818126440048218e+00</stageThreshold>
      <weakClassifiers>
        <_>
          <internalNodes>
            0 -1 67 1.0257620364427567e-02</internalNodes>
          <leafValues>
            -4.6385541558265686e-01 6.6708701848983765e-01</leafValues></_>
        <_>
          <internalNodes>
            0 -1 154 -7.9746484756469727e-02</internalNodes>
          <leafValues>
            4.9857017397880554e-01 -3.8941779732704163e-01</leafValues></_>
        <_>
          <internalNodes>
            0 -1 143 2.0917204674333334e-03</internalNodes>
          <leafValues>
            -2.1461199223995209e-01 6.4254146814346313e-01</leafValues></_>
        <_>
          <internalNodes>
            0 -1 103 7.2295301833946723e-06</internalNodes>
          <leafValues>
            -3.1022685766220093e-01 3.5735830664634705e-01</leafValues></_>
        <_>
          <internalNodes>
            0 -1 138 5.5452968808822334e-05</internalNodes>
          <leafValues>
            1.8262927234172821e-01 -4.6706646680831909e-01</leafValues></_>
        <_>
          <internalNodes>
            0 -1 48 7.6174533205630723e-06</internalNodes>
          <leafValues>
            -4.7082194685935974e-01 1.8730442225933075e-01</leafValues></_>
        <_>
          <internalNodes>
            0 -1 35 1.7752081475919113e-05</internalNodes>
          <leafValues>
            -3.4860172867774963e-01 2.2189681231975555e-01</leafValues></_>
        <_>
          <internalNodes>
            0 -1 114 -5.0940366236318368e-06</internalNodes>
          <leafValues>
            -1. 7.6474778354167938e-02</leafValues></_>
        <_>
          <internalNodes>
            0 -1 155 1.6197531949728727e-03</internalNodes>
          <leafValues>
            -1.3176454603672028e-01 8.4558951854705811e-01</leafValues></_>
        <_>
          <internalNodes>
            0 -1 141 -2.4883673177100718e-05</internalNodes>
          <leafValues>
            -4.1953676939010620e-01 2.0451685786247253e-01</leafValues></_>
        <_>
          <internalNodes>
            0 -1 23 6.8436808884143829e-02</internalNodes>
          <leafValues>
            -1.6079153120517731e-01 6.3867610692977905e-01</leafValues></_>
        <_>
          <internalNodes>
            0 -1 130 6.4402574935229495e-06</internalNodes>
          <leafValues>
            -1.8504163622856140e-01 4.5229014754295349e-01</leafValues></_>
        <_>
          <internalNodes>
            0 -1 130 -1.2038875865982845e-05</internalNodes>
          <leafValues>
            3.8264599442481995e-01 -2.8689989447593689e-01</leafValues></_>
        <_>
          <internalNodes>
            0 -1 41 -2.7688857167959213e-02</internalNodes>
          <leafValues>
            4.9656018614768982e-01 -1.5294353663921356e-01</leafValues></_>
        <_>
          <internalNodes>
            0 -1 168 5.9333042372600175e-06</internalNodes>
          <leafValues>
            -1.8151694536209106e-01 4.2045399546623230e-01</leafValues></_>
        <_>
          <internalNodes>
            0 -1 116 8.6558620751020499e-06</internalNodes>
          <leafValues>
            8.5202619433403015e-02 -9.6737456321716309e-01</leafValues></_>
        <_>
          <internalNodes>
            0 -1 88 1.6263480574707501e-05</internalNodes>
          <leafValues>
            -3.0569997429847717e-01 2.7108055353164673e-01</leafValues></_>
        <_>
          <internalNodes>
            0 -1 85 -6.0316392591630574e-06</internalNodes>
          <leafValues>
            4.6375635266304016e-01 -1.6571691632270813e-01</leafValues></_>
        <_>
          <internalNodes>
            0 -1 165 -6.9183362647891045e-03</internalNodes>
          <leafValues>
            -4.9613240361213684e-01 1.3762928545475006e-01</leafValues></_>
        <_>
          <internalNodes>
            0 -1 167 -7.1275038644671440e-03</internalNodes>
          <leafValues>
            -5.4309195280075073e-01 1.0630062222480774e-01</leafValues></_></weakClassifiers></_>
    <!-- stage 13 -->
    <_>
      <maxWeakCount>23</maxWeakCount>
      <stageThreshold>-1.2438269853591919e+00</stageThreshold>
      <weakClassifiers>
        <_>
          <internalNodes>
            0 -1 55 6.9382167421281338e-03</internalNodes>
          <leafValues>
            -5.3531134128570557e-01 6.4794915914535522e-01</leafValues></_>
        <_>
          <internalNodes>
            0 -1 42 4.9469389021396637e-02</internalNodes>
          <leafValues>
            -4.1830751299858093e-01 4.1087630391120911e-01</leafValues></_>
        <_>
          <internalNodes>
            0 -1 73 -7.8212551670731045e-06</internalNodes>
          <leafValues>
            -9.9186915159225464e-01 1.1317553371191025e-01</leafValues></_>
        <_>
          <internalNodes>
            0 -1 22 6.6171243786811829e-02</internalNodes>
          <leafValues>
            -2.0427584648132324e-01 6.4490956068038940e-01</leafValues></_>
        <_>
          <internalNodes>
            0 -1 84 4.8021219670772552e-02</internalNodes>
          <leafValues>
            -1.6215386986732483e-01 6.5815836191177368e-01</leafValues></_>
        <_>
          <internalNodes>
            0 -1 29 -1.8563496269052848e-05</internalNodes>
          <leafValues>
            2.2036635875701904e-01 -3.9882123470306396e-01</leafValues></_>
        <_>
          <internalNodes>
            0 -1 114 7.4178706199745648e-06</internalNodes>
          <leafValues>
            7.5325191020965576e-02 -9.8382222652435303e-01</leafValues></_>
        <_>
          <internalNodes>
            0 -1 45 1.3826998838339932e-05</internalNodes>
          <leafValues>
            -3.1296291947364807e-01 2.3638761043548584e-01</leafValues></_>
        <_>
          <internalNodes>
            0 -1 151 1.9764667376875877e-03</internalNodes>
          <leafValues>
            -1.6578646004199982e-01 6.7960143089294434e-01</leafValues></_>
        <_>
          <internalNodes>
            0 -1 76 -5.4386669035011437e-06</internalNodes>
          <leafValues>
            -4.9770155549049377e-01 2.0944860577583313e-01</leafValues></_>
        <_>
          <internalNodes>
            0 -1 24 3.8301125168800354e-02</internalNodes>
          <leafValues>
            6.5772540867328644e-02 -7.8001266717910767e-01</leafValues></_>
        <_>
          <internalNodes>
            0 -1 162 -6.5586791606619954e-06</internalNodes>
          <leafValues>
            2.9043650627136230e-01 -2.5218343734741211e-01</leafValues></_>
        <_>
          <internalNodes>
            0 -1 161 1.8371485639363527e-03</internalNodes>
          <leafValues>
            -7.5072161853313446e-02 8.3646512031555176e-01</leafValues></_>
        <_>
          <internalNodes>
            0 -1 149 -4.2584317270666361e-04</internalNodes>
          <leafValues>
            -5.3302216529846191e-01 1.4375244081020355e-01</leafValues></_>
        <_>
          <internalNodes>
            0 -1 137 -1.3266375390230678e-05</internalNodes>
          <leafValues>
            2.1808448433876038e-01 -2.9722815752029419e-01</leafValues></_>
        <_>
          <internalNodes>
            0 -1 123 6.8024933170818258e-06</internalNodes>
          <leafValues>
            7.1656756103038788e-02 -9.4731402397155762e-01</leafValues></_>
        <_>
          <internalNodes>
            0 -1 65 -3.7714657082688063e-05</internalNodes>
          <leafValues>
            3.1262496113777161e-01 -2.2887420654296875e-01</leafValues></_>
        <_>
          <internalNodes>
            0 -1 49 2.9839237686246634e-04</internalNodes>
          <leafValues>
            -2.5473573803901672e-01 2.4714769423007965e-01</leafValues></_>
        <_>
          <internalNodes>
            0 -1 9 3.2734525203704834e-01</internalNodes>
          <leafValues>
            -9.1987267136573792e-02 7.9722207784652710e-01</leafValues></_>
        <_>
          <internalNodes>
            0 -1 123 -5.8129776334681083e-06</internalNodes>
          <leafValues>
            -5.1661372184753418e-01 1.6129136085510254e-01</leafValues></_>
        <_>
          <internalNodes>
            0 -1 164 3.0659113690489903e-05</internalNodes>
          <leafValues>
            -2.4675799906253815e-01 2.7958515286445618e-01</leafValues></_>
        <_>
          <internalNodes>
            0 -1 81 1.4153649099171162e-03</internalNodes>
          <leafValues>
            1.0026632994413376e-01 -6.6409742832183838e-01</leafValues></_>
        <_>
          <internalNodes>
            0 -1 128 -1.6535858158022165e-03</internalNodes>
          <leafValues>
            5.2081656455993652e-01 -1.3503994047641754e-01</leafValues></_></weakClassifiers></_>
    <!-- stage 14 -->
    <_>
      <maxWeakCount>24</maxWeakCount>
      <stageThreshold>-1.3446029424667358e+00</stageThreshold>
      <weakClassifiers>
        <_>
          <internalNodes>
            0 -1 118 -5.7578943669795990e-03</internalNodes>
          <leafValues>
            6.3141268491744995e-01 -5.0871229171752930e-01</leafValues></_>
        <_>
          <internalNodes>
            0 -1 13 2.3108195819077082e-05</internalNodes>
          <leafValues>
            -4.3911194801330566e-01 3.9305230975151062e-01</leafValues></_>
        <_>
          <internalNodes>
            0 -1 159 -2.4287007749080658e-02</internalNodes>
          <leafValues>
            2.8478357195854187e-01 -4.6393662691116333e-01</leafValues></_>
        <_>
          <internalNodes>
            0 -1 90 5.7804918469628319e-06</internalNodes>
          <leafValues>
            1.5787570178508759e-01 -7.2940182685852051e-01</leafValues></_>
        <_>
          <internalNodes>
            0 -1 70 6.4917869167402387e-04</internalNodes>
          <leafValues>
            -5.3820991516113281e-01 1.6786339879035950e-01</leafValues></_>
        <_>
          <internalNodes>
            0 -1 160 1.4359054621309042e-03</internalNodes>
          <leafValues>
            -1.8268375098705292e-01 5.0634193420410156e-01</leafValues></_>
        <_>
          <internalNodes>
            0 -1 148 1.8626368045806885e-01</internalNodes>
          <leafValues>
            -1.4293496310710907e-01 8.0542206764221191e-01</leafValues></_>
        <_>
          <internalNodes>
            0 -1 11 9.1701942437794060e-05</internalNodes>
          <leafValues>
            -2.5632429122924805e-01 3.7449887394905090e-01</leafValues></_>
        <_>
          <internalNodes>
            0 -1 113 6.3970619521569461e-06</internalNodes>
          <leafValues>
            1.1171197146177292e-01 -7.9307174682617188e-01</leafValues></_>
        <_>
          <internalNodes>
            0 -1 113 -8.0513691500527784e-06</internalNodes>
          <leafValues>
            -9.4085788726806641e-01 2.9759308323264122e-02</leafValues></_>
        <_>
          <internalNodes>
            0 -1 54 1.3189619407057762e-02</internalNodes>
          <leafValues>
            -1.0589994490146637e-01 6.6247701644897461e-01</leafValues></_>
        <_>
          <internalNodes>
            0 -1 5 4.1484717279672623e-02</internalNodes>
          <leafValues>
            -1.8992137908935547e-01 4.3130955100059509e-01</leafValues></_>
        <_>
          <internalNodes>
            0 -1 166 1.5342835467890836e-05</internalNodes>
          <leafValues>
            -1.9253134727478027e-01 3.3744966983795166e-01</leafValues></_>
        <_>
          <internalNodes>
            0 -1 20 1.4307974197436124e-05</internalNodes>
          <leafValues>
            -3.2804164290428162e-01 1.9876971840858459e-01</leafValues></_>
        <_>
          <internalNodes>
            0 -1 97 7.7015192800899968e-06</internalNodes>
          <leafValues>
            7.3094658553600311e-02 -9.4786602258682251e-01</leafValues></_>
        <_>
          <internalNodes>
            0 -1 56 -6.0841644881293178e-05</internalNodes>
          <leafValues>
            -8.1802725791931152e-01 5.7645961642265320e-02</leafValues></_>
        <_>
          <internalNodes>
            0 -1 17 1.2801879165635910e-05</internalNodes>
          <leafValues>
            -2.1911321580410004e-01 3.3010038733482361e-01</leafValues></_>
        <_>
          <internalNodes>
            0 -1 3 5.3408972918987274e-02</internalNodes>
          <leafValues>
            -9.5472425222396851e-02 7.1531862020492554e-01</leafValues></_>
        <_>
          <internalNodes>
            0 -1 52 -1.8511800590204075e-05</internalNodes>
          <leafValues>
            3.5856059193611145e-01 -1.7547053098678589e-01</leafValues></_>
        <_>
          <internalNodes>
            0 -1 6 -3.5259090363979340e-02</internalNodes>
          <leafValues>
            -7.1197050809860229e-01 9.5550484955310822e-02</leafValues></_>
        <_>
          <internalNodes>
            0 -1 111 -3.0916120158508420e-04</internalNodes>
          <leafValues>
            1.5544766187667847e-01 -4.3333345651626587e-01</leafValues></_>
        <_>
          <internalNodes>
            0 -1 142 -3.1818493880564347e-05</internalNodes>
          <leafValues>
            -4.5970278978347778e-01 1.4927436411380768e-01</leafValues></_>
        <_>
          <internalNodes>
            0 -1 100 1.7469616141170263e-03</internalNodes>
          <leafValues>
            -1.5842349827289581e-01 5.2401059865951538e-01</leafValues></_>
        <_>
          <internalNodes>
            0 -1 133 1.7272019249503501e-05</internalNodes>
          <leafValues>
            -1.8237870931625366e-01 3.7957254052162170e-01</leafValues></_></weakClassifiers></_></stages>
  <features>
    <_>
      <rects>
        <_>
          1 12 30 3 -1.</_>
        <_>
          11 12 10 3 3.</_></rects>
      <tilted>0</tilted></_>
    <_>
      <rects>
        <_>
          1 12 30 4 -1.</_>
        <_>
          11 12 10 4 3.</_></rects>
      <tilted>0</tilted></_>
    <_>
      <rects>
        <_>
          1 13 30 2 -1.</_>
        <_>
          11 13 10 2 3.</_></rects>
      <tilted>0</tilted></_>
    <_>
      <rects>
        <_>
          2 14 12 11 -1.</_>
        <_>
          6 14 4 11 3.</_></rects>
      <tilted>0</tilted></_>
    <_>
      <rects>
        <_>
          3 12 27 3 -1.</_>
        <_>
          12 12 9 3 3.</_></rects>
      <tilted>0</tilted></_>
    <_>
      <rects>
        <_>
          3 19 21 5 -1.</_>
        <_>
          10 19 7 5 3.</_></rects>
      <tilted>0</tilted></_>
    <_>
      <rects>
        <_>
          4 12 18 6 -1.</_>
        <_>
          4 15 18 3 2.</_></rects>
      <tilted>0</tilted></_>
    <_>
      <rects>
        <_>
          4 13 10 2 -1.</_>
        <_>
          4 13 5 1 2.</_>
        <_>
          9 14 5 1 2.</_></rects>
      <tilted>0</tilted></_>
    <_>
      <rects>
        <_>
          5 11 13 12 -1.</_>
        <_>
          5 15 13 4 3.</_></rects>
      <tilted>0</tilted></_>
    <_>
      <rects>
        <_>
          6 6 21 20 -1.</_>
        <_>
          13 6 7 20 3.</_></rects>
      <tilted>0</tilted></_>
    <_>
      <rects>
        <_>
          6 10 9 6 -1.</_>
        <_>
          6 13 9 3 2.</_></rects>
      <tilted>0</tilted></_>
    <_>
      <rects>
        <_>
          6 12 10 4 -1.</_>
        <_>
          6 12 5 2 2.</_>
        <_>
          11 14 5 2 2.</_></rects>
      <tilted>0</tilted></_>
    <_>
      <rects>
        <_>
          6 12 9 2 -1.</_>
        <_>
          6 13 9 1 2.</_></rects>
      <tilted>0</tilted></_>
    <_>
      <rects>
        <_>
          6 13 11 2 -1.</_>
        <_>
          6 14 11 1 2.</_></rects>
      <tilted>0</tilted></_>
    <_>
      <rects>
        <_>
          6 14 16 5 -1.</_>
        <_>
          14 14 8 5 2.</_></rects>
      <tilted>0</tilted></_>
    <_>
      <rects>
        <_>
          6 15 15 6 -1.</_>
        <_>
          11 15 5 6 3.</_></rects>
      <tilted>0</tilted></_>
    <_>
      <rects>
        <_>
          6 17 12 7 -1.</_>
        <_>
          10 17 4 7 3.</_></rects>
      <tilted>0</tilted></_>
    <_>
      <rects>
        <_>
          6 28 5 2 -1.</_>
        <_>
          6 29 5 1 2.</_></rects>
      <tilted>0</tilted></_>
    <_>
      <rects>
        <_>
          7 1 17 30 -1.</_>
        <_>
          7 11 17 10 3.</_></rects>
      <tilted>0</tilted></_>
    <_>
      <rects>
        <_>
          7 12 6 2 -1.</_>
        <_>
          7 13 6 1 2.</_></rects>
      <tilted>0</tilted></_>
    <_>
      <rects>
        <_>
          7 12 10 3 -1.</_>
        <_>
          7 13 10 1 3.</_></rects>
      <tilted>0</tilted></_>
    <_>
      <rects>
        <_>
          7 16 9 4 -1.</_>
        <_>
          10 16 3 4 3.</_></rects>
      <tilted>0</tilted></_>
    <_>
      <rects>
        <_>
          7 16 12 8 -1.</_>
        <_>
          11 16 4 8 3.</_></rects>
      <tilted>0</tilted></_>
    <_>
      <rects>
        <_>
          7 16 15 8 -1.</_>
        <_>
          12 16 5 8 3.</_></rects>
      <tilted>0</tilted></_>
    <_>
      <rects>
        <_>
          8 11 9 12 -1.</_>
        <_>
          8 15 9 4 3.</_></rects>
      <tilted>0</tilted></_>
    <_>
      <rects>
        <_>
          8 12 6 4 -1.</_>
        <_>
          8 12 3 2 2.</_>
        <_>
          11 14 3 2 2.</_></rects>
      <tilted>0</tilted></_>
    <_>
      <rects>
        <_>
          8 12 6 3 -1.</_>
        <_>
          8 13 6 1 3.</_></rects>
      <tilted>0</tilted></_>
    <_>
      <rects>
        <_>
          8 13 13 2 -1.</_>
        <_>
          8 14 13 1 2.</_></rects>
      <tilted>0</tilted></_>
    <_>
      <rects>
        <_>
          8 14 12 10 -1.</_>
        <_>
          12 14 4 10 3.</_></rects>
      <tilted>0</tilted></_>
    <_>
      <rects>
        <_>
          8 14 10 2 -1.</_>
        <_>
          8 14 5 1 2.</_>
        <_>
          13 15 5 1 2.</_></rects>
      <tilted>0</tilted></_>
    <_>
      <rects>
        <_>
          8 15 12 11 -1.</_>
        <_>
          12 15 4 11 3.</_></rects>
      <tilted>0</tilted></_>
    <_>
      <rects>
        <_>
          8 16 7 2 -1.</_>
        <_>
          8 17 7 1 2.</_></rects>
      <tilted>0</tilted></_>
    <_>
      <rects>
        <_>
          8 19 12 4 -1.</_>
        <_>
          12 19 4 4 3.</_></rects>
      <tilted>0</tilted></_>
    <_>
      <rects>
        <_>
          9 2 8 30 -1.</_>
        <_>
          9 12 8 10 3.</_></rects>
      <tilted>0</tilted></_>
    <_>
      <rects>
        <_>
          9 10 11 21 -1.</_>
        <_>
          9 17 11 7 3.</_></rects>
      <tilted>0</tilted></_>
    <_>
      <rects>
        <_>
          9 13 4 9 -1.</_>
        <_>
          9 16 4 3 3.</_></rects>
      <tilted>0</tilted></_>
    <_>
      <rects>
        <_>
          9 16 12 8 -1.</_>
        <_>
          13 16 4 8 3.</_></rects>
      <tilted>0</tilted></_>
    <_>
      <rects>
        <_>
          10 8 8 2 -1.</_>
        <_>
          10 9 8 1 2.</_></rects>
      <tilted>0</tilted></_>
    <_>
      <rects>
        <_>
          10 8 11 24 -1.</_>
        <_>
          10 16 11 8 3.</_></rects>
      <tilted>0</tilted></_>
    <_>
      <rects>
        <_>
          10 12 10 3 -1.</_>
        <_>
          10 13 10 1 3.</_></rects>
      <tilted>0</tilted></_>
    <_>
      <rects>
        <_>
          10 13 9 9 -1.</_>
        <_>
          13 13 3 9 3.</_></rects>
      <tilted>0</tilted></_>
    <_>
      <rects>
        <_>
          10 13 9 14 -1.</_>
        <_>
          13 13 3 14 3.</_></rects>
      <tilted>0</tilted></_>
    <_>
      <rects>
        <_>
          11 1 3 30 -1.</_>
        <_>
          11 11 3 10 3.</_></rects>
      <tilted>0</tilted></_>
    <_>
      <rects>
        <_>
          11 1 5 30 -1.</_>
        <_>
          11 11 5 10 3.</_></rects>
      <tilted>0</tilted></_>
    <_>
      <rects>
        <_>
          11 8 12 16 -1.</_>
        <_>
          11 8 6 8 2.</_>
        <_>
          17 16 6 8 2.</_></rects>
      <tilted>0</tilted></_>
    <_>
      <rects>
        <_>
          11 8 16 2 -1.</_>
        <_>
          11 8 8 1 2.</_>
        <_>
          19 9 8 1 2.</_></rects>
      <tilted>0</tilted></_>
    <_>
      <rects>
        <_>
          11 11 9 2 -1.</_>
        <_>
          14 11 3 2 3.</_></rects>
      <tilted>0</tilted></_>
    <_>
      <rects>
        <_>
          11 12 4 4 -1.</_>
        <_>
          11 12 2 2 2.</_>
        <_>
          13 14 2 2 2.</_></rects>
      <tilted>0</tilted></_>
    <_>
      <rects>
        <_>
          11 12 3 6 -1.</_>
        <_>
          11 14 3 2 3.</_></rects>
      <tilted>0</tilted></_>
    <_>
      <rects>
        <_>
          11 12 9 2 -1.</_>
        <_>
          11 13 9 1 2.</_></rects>
      <tilted>0</tilted></_>
    <_>
      <rects>
        <_>
          12 8 8 14 -1.</_>
        <_>
          12 8 4 7 2.</_>
        <_>
          16 15 4 7 2.</_></rects>
      <tilted>0</tilted></_>
    <_>
      <rects>
        <_>
          12 8 5 4 -1.</_>
        <_>
          12 10 5 2 2.</_></rects>
      <tilted>0</tilted></_>
    <_>
      <rects>
        <_>
          12 9 5 2 -1.</_>
        <_>
          12 10 5 1 2.</_></rects>
      <tilted>0</tilted></_>
    <_>
      <rects>
        <_>
          12 9 6 2 -1.</_>
        <_>
          12 10 6 1 2.</_></rects>
      <tilted>0</tilted></_>
    <_>
      <rects>
        <_>
          12 11 8 6 -1.</_>
        <_>
          12 11 4 3 2.</_>
        <_>
          16 14 4 3 2.</_></rects>
      <tilted>0</tilted></_>
    <_>
      <rects>
        <_>
          12 11 5 6 -1.</_>
        <_>
          12 13 5 2 3.</_></rects>
      <tilted>0</tilted></_>
    <_>
      <rects>
        <_>
          12 14 4 1 -1.</_>
        <_>
          14 14 2 1 2.</_></rects>
      <tilted>0</tilted></_>
    <_>
      <rects>
        <_>
          12 15 1 2 -1.</_>
        <_>
          12 16 1 1 2.</_></rects>
      <tilted>0</tilted></_>
    <_>
      <rects>
        <_>
          12 16 9 4 -1.</_>
        <_>
          15 16 3 4 3.</_></rects>
      <tilted>0</tilted></_>
    <_>
      <rects>
        <_>
          12 17 9 2 -1.</_>
        <_>
          15 17 3 2 3.</_></rects>
      <tilted>0</tilted></_>
    <_>
      <rects>
        <_>
          13 6 2 6 -1.</_>
        <_>
          13 6 1 3 2.</_>
        <_>
          14 9 1 3 2.</_></rects>
      <tilted>0</tilted></_>
    <_>
      <rects>
        <_>
          13 7 5 6 -1.</_>
        <_>
          13 9 5 2 3.</_></rects>
      <tilted>0</tilted></_>
    <_>
      <rects>
        <_>
          13 9 4 9 -1.</_>
        <_>
          13 12 4 3 3.</_></rects>
      <tilted>0</tilted></_>
    <_>
      <rects>
        <_>
          13 10 3 5 -1.</_>
        <_>
          14 10 1 5 3.</_></rects>
      <tilted>0</tilted></_>
    <_>
      <rects>
        <_>
          13 10 2 2 -1.</_>
        <_>
          13 11 2 1 2.</_></rects>
      <tilted>0</tilted></_>
    <_>
      <rects>
        <_>
          13 10 6 1 -1.</_>
        <_>
          15 10 2 1 3.</_></rects>
      <tilted>0</tilted></_>
    <_>
      <rects>
        <_>
          13 10 5 2 -1.</_>
        <_>
          13 11 5 1 2.</_></rects>
      <tilted>0</tilted></_>
    <_>
      <rects>
        <_>
          13 10 6 6 -1.</_>
        <_>
          13 12 6 2 3.</_></rects>
      <tilted>0</tilted></_>
    <_>
      <rects>
        <_>
          13 11 6 1 -1.</_>
        <_>
          15 11 2 1 3.</_></rects>
      <tilted>0</tilted></_>
    <_>
      <rects>
        <_>
          13 11 6 3 -1.</_>
        <_>
          15 11 2 3 3.</_></rects>
      <tilted>0</tilted></_>
    <_>
      <rects>
        <_>
          13 11 6 2 -1.</_>
        <_>
          13 12 6 1 2.</_></rects>
      <tilted>0</tilted></_>
    <_>
      <rects>
        <_>
          13 11 6 3 -1.</_>
        <_>
          13 12 6 1 3.</_></rects>
      <tilted>0</tilted></_>
    <_>
      <rects>
        <_>
          13 11 9 2 -1.</_>
        <_>
          13 12 9 1 2.</_></rects>
      <tilted>0</tilted></_>
    <_>
      <rects>
        <_>
          13 13 4 1 -1.</_>
        <_>
          15 13 2 1 2.</_></rects>
      <tilted>0</tilted></_>
    <_>
      <rects>
        <_>
          13 13 6 1 -1.</_>
        <_>
          15 13 2 1 3.</_></rects>
      <tilted>0</tilted></_>
    <_>
      <rects>
        <_>
          13 14 2 1 -1.</_>
        <_>
          14 14 1 1 2.</_></rects>
      <tilted>0</tilted></_>
    <_>
      <rects>
        <_>
          13 14 1 2 -1.</_>
        <_>
          13 15 1 1 2.</_></rects>
      <tilted>0</tilted></_>
    <_>
      <rects>
        <_>
          13 14 3 1 -1.</_>
        <_>
          14 14 1 1 3.</_></rects>
      <tilted>0</tilted></_>
    <_>
      <rects>
        <_>
          13 14 4 1 -1.</_>
        <_>
          15 14 2 1 2.</_></rects>
      <tilted>0</tilted></_>
    <_>
      <rects>
        <_>
          13 14 4 3 -1.</_>
        <_>
          15 14 2 3 2.</_></rects>
      <tilted>0</tilted></_>
    <_>
      <rects>
        <_>
          13 15 4 2 -1.</_>
        <_>
          13 15 2 1 2.</_>
        <_>
          15 16 2 1 2.</_></rects>
      <tilted>0</tilted></_>
    <_>
      <rects>
        <_>
          13 16 1 6 -1.</_>
        <_>
          13 19 1 3 2.</_></rects>
      <tilted>0</tilted></_>
    <_>
      <rects>
        <_>
          13 16 4 2 -1.</_>
        <_>
          13 16 2 1 2.</_>
        <_>
          15 17 2 1 2.</_></rects>
      <tilted>0</tilted></_>
    <_>
      <rects>
        <_>
          13 16 6 2 -1.</_>
        <_>
          15 16 2 2 3.</_></rects>
      <tilted>0</tilted></_>
    <_>
      <rects>
        <_>
          13 16 18 3 -1.</_>
        <_>
          19 16 6 3 3.</_></rects>
      <tilted>0</tilted></_>
    <_>
      <rects>
        <_>
          14 9 2 3 -1.</_>
        <_>
          15 9 1 3 2.</_></rects>
      <tilted>0</tilted></_>
    <_>
      <rects>
        <_>
          14 10 8 2 -1.</_>
        <_>
          18 10 4 2 2.</_></rects>
      <tilted>0</tilted></_>
    <_>
      <rects>
        <_>
          14 10 12 2 -1.</_>
        <_>
          14 11 12 1 2.</_></rects>
      <tilted>0</tilted></_>
    <_>
      <rects>
        <_>
          14 11 3 5 -1.</_>
        <_>
          15 11 1 5 3.</_></rects>
      <tilted>0</tilted></_>
    <_>
      <rects>
        <_>
          14 11 4 8 -1.</_>
        <_>
          14 15 4 4 2.</_></rects>
      <tilted>0</tilted></_>
    <_>
      <rects>
        <_>
          14 12 2 1 -1.</_>
        <_>
          15 12 1 1 2.</_></rects>
      <tilted>0</tilted></_>
    <_>
      <rects>
        <_>
          14 12 3 2 -1.</_>
        <_>
          15 12 1 2 3.</_></rects>
      <tilted>0</tilted></_>
    <_>
      <rects>
        <_>
          14 12 3 3 -1.</_>
        <_>
          14 13 3 1 3.</_></rects>
      <tilted>0</tilted></_>
    <_>
      <rects>
        <_>
          14 12 4 9 -1.</_>
        <_>
          14 15 4 3 3.</_></rects>
      <tilted>0</tilted></_>
    <_>
      <rects>
        <_>
          14 13 2 1 -1.</_>
        <_>
          15 13 1 1 2.</_></rects>
      <tilted>0</tilted></_>
    <_>
      <rects>
        <_>
          14 13 3 1 -1.</_>
        <_>
          15 13 1 1 3.</_></rects>
      <tilted>0</tilted></_>
    <_>
      <rects>
        <_>
          14 13 4 1 -1.</_>
        <_>
          16 13 2 1 2.</_></rects>
      <tilted>0</tilted></_>
    <_>
      <rects>
        <_>
          14 13 6 1 -1.</_>
        <_>
          17 13 3 1 2.</_></rects>
      <tilted>0</tilted></_>
    <_>
      <rects>
        <_>
          14 13 3 4 -1.</_>
        <_>
          14 15 3 2 2.</_></rects>
      <tilted>0</tilted></_>
    <_>
      <rects>
        <_>
          14 13 3 6 -1.</_>
        <_>
          14 15 3 2 3.</_></rects>
      <tilted>0</tilted></_>
    <_>
      <rects>
        <_>
          14 15 3 2 -1.</_>
        <_>
          15 15 1 2 3.</_></rects>
      <tilted>0</tilted></_>
    <_>
      <rects>
        <_>
          14 16 3 1 -1.</_>
        <_>
          15 16 1 1 3.</_></rects>
      <tilted>0</tilted></_>
    <_>
      <rects>
        <_>
          14 18 10 4 -1.</_>
        <_>
          14 18 5 2 2.</_>
        <_>
          19 20 5 2 2.</_></rects>
      <tilted>0</tilted></_>
    <_>
      <rects>
        <_>
          14 19 5 2 -1.</_>
        <_>
          14 20 5 1 2.</_></rects>
      <tilted>0</tilted></_>
    <_>
      <rects>
        <_>
          15 2 2 21 -1.</_>
        <_>
          15 9 2 7 3.</_></rects>
      <tilted>0</tilted></_>
    <_>
      <rects>
        <_>
          15 3 2 9 -1.</_>
        <_>
          16 3 1 9 2.</_></rects>
      <tilted>0</tilted></_>
    <_>
      <rects>
        <_>
          15 8 15 15 -1.</_>
        <_>
          20 8 5 15 3.</_></rects>
      <tilted>0</tilted></_>
    <_>
      <rects>
        <_>
          15 10 3 5 -1.</_>
        <_>
          16 10 1 5 3.</_></rects>
      <tilted>0</tilted></_>
    <_>
      <rects>
        <_>
          15 10 2 6 -1.</_>
        <_>
          16 10 1 6 2.</_></rects>
      <tilted>0</tilted></_>
    <_>
      <rects>
        <_>
          15 10 4 2 -1.</_>
        <_>
          15 10 2 1 2.</_>
        <_>
          17 11 2 1 2.</_></rects>
      <tilted>0</tilted></_>
    <_>
      <rects>
        <_>
          15 11 3 5 -1.</_>
        <_>
          16 11 1 5 3.</_></rects>
      <tilted>0</tilted></_>
    <_>
      <rects>
        <_>
          15 11 2 6 -1.</_>
        <_>
          15 14 2 3 2.</_></rects>
      <tilted>0</tilted></_>
    <_>
      <rects>
        <_>
          15 11 4 4 -1.</_>
        <_>
          17 11 2 4 2.</_></rects>
      <tilted>0</tilted></_>
    <_>
      <rects>
        <_>
          15 12 3 1 -1.</_>
        <_>
          16 12 1 1 3.</_></rects>
      <tilted>0</tilted></_>
    <_>
      <rects>
        <_>
          15 12 1 3 -1.</_>
        <_>
          15 13 1 1 3.</_></rects>
      <tilted>0</tilted></_>
    <_>
      <rects>
        <_>
          15 12 2 2 -1.</_>
        <_>
          16 12 1 2 2.</_></rects>
      <tilted>0</tilted></_>
    <_>
      <rects>
        <_>
          15 12 2 2 -1.</_>
        <_>
          15 13 2 1 2.</_></rects>
      <tilted>0</tilted></_>
    <_>
      <rects>
        <_>
          15 12 2 3 -1.</_>
        <_>
          15 13 2 1 3.</_></rects>
      <tilted>0</tilted></_>
    <_>
      <rects>
        <_>
          15 12 2 6 -1.</_>
        <_>
          15 15 2 3 2.</_></rects>
      <tilted>0</tilted></_>
    <_>
      <rects>
        <_>
          15 12 3 6 -1.</_>
        <_>
          15 15 3 3 2.</_></rects>
      <tilted>0</tilted></_>
    <_>
      <rects>
        <_>
          15 13 1 2 -1.</_>
        <_>
          15 14 1 1 2.</_></rects>
      <tilted>0</tilted></_>
    <_>
      <rects>
        <_>
          15 13 3 1 -1.</_>
        <_>
          16 13 1 1 3.</_></rects>
      <tilted>0</tilted></_>
    <_>
      <rects>
        <_>
          15 13 3 4 -1.</_>
        <_>
          16 13 1 4 3.</_></rects>
      <tilted>0</tilted></_>
    <_>
      <rects>
        <_>
          15 13 4 1 -1.</_>
        <_>
          17 13 2 1 2.</_></rects>
      <tilted>0</tilted></_>
    <_>
      <rects>
        <_>
          15 13 2 2 -1.</_>
        <_>
          15 14 2 1 2.</_></rects>
      <tilted>0</tilted></_>
    <_>
      <rects>
        <_>
          15 13 2 4 -1.</_>
        <_>
          15 15 2 2 2.</_></rects>
      <tilted>0</tilted></_>
    <_>
      <rects>
        <_>
          15 13 2 9 -1.</_>
        <_>
          15 16 2 3 3.</_></rects>
      <tilted>0</tilted></_>
    <_>
      <rects>
        <_>
          15 14 1 2 -1.</_>
        <_>
          15 15 1 1 2.</_></rects>
      <tilted>0</tilted></_>
    <_>
      <rects>
        <_>
          15 14 2 3 -1.</_>
        <_>
          15 15 2 1 3.</_></rects>
      <tilted>0</tilted></_>
    <_>
      <rects>
        <_>
          15 14 3 4 -1.</_>
        <_>
          15 16 3 2 2.</_></rects>
      <tilted>0</tilted></_>
    <_>
      <rects>
        <_>
          15 15 2 2 -1.</_>
        <_>
          15 15 1 1 2.</_>
        <_>
          16 16 1 1 2.</_></rects>
      <tilted>0</tilted></_>
    <_>
      <rects>
        <_>
          15 15 3 2 -1.</_>
        <_>
          16 15 1 2 3.</_></rects>
      <tilted>0</tilted></_>
    <_>
      <rects>
        <_>
          15 15 2 2 -1.</_>
        <_>
          15 16 2 1 2.</_></rects>
      <tilted>0</tilted></_>
    <_>
      <rects>
        <_>
          15 16 3 1 -1.</_>
        <_>
          16 16 1 1 3.</_></rects>
      <tilted>0</tilted></_>
    <_>
      <rects>
        <_>
          15 16 6 10 -1.</_>
        <_>
          15 16 3 5 2.</_>
        <_>
          18 21 3 5 2.</_></rects>
      <tilted>0</tilted></_>
    <_>
      <rects>
        <_>
          15 16 11 2 -1.</_>
        <_>
          15 17 11 1 2.</_></rects>
      <tilted>0</tilted></_>
    <_>
      <rects>
        <_>
          16 7 1 12 -1.</_>
        <_>
          16 11 1 4 3.</_></rects>
      <tilted>0</tilted></_>
    <_>
      <rects>
        <_>
          16 9 2 7 -1.</_>
        <_>
          17 9 1 7 2.</_></rects>
      <tilted>0</tilted></_>
    <_>
      <rects>
        <_>
          16 11 1 2 -1.</_>
        <_>
          16 12 1 1 2.</_></rects>
      <tilted>0</tilted></_>
    <_>
      <rects>
        <_>
          16 12 2 1 -1.</_>
        <_>
          17 12 1 1 2.</_></rects>
      <tilted>0</tilted></_>
    <_>
      <rects>
        <_>
          16 12 1 3 -1.</_>
        <_>
          16 13 1 1 3.</_></rects>
      <tilted>0</tilted></_>
    <_>
      <rects>
        <_>
          16 12 1 4 -1.</_>
        <_>
          16 14 1 2 2.</_></rects>
      <tilted>0</tilted></_>
    <_>
      <rects>
        <_>
          16 14 1 2 -1.</_>
        <_>
          16 15 1 1 2.</_></rects>
      <tilted>0</tilted></_>
    <_>
      <rects>
        <_>
          16 14 1 3 -1.</_>
        <_>
          16 15 1 1 3.</_></rects>
      <tilted>0</tilted></_>
    <_>
      <rects>
        <_>
          16 14 2 4 -1.</_>
        <_>
          16 14 1 2 2.</_>
        <_>
          17 16 1 2 2.</_></rects>
      <tilted>0</tilted></_>
    <_>
      <rects>
        <_>
          16 15 3 3 -1.</_>
        <_>
          17 15 1 3 3.</_></rects>
      <tilted>0</tilted></_>
    <_>
      <rects>
        <_>
          16 16 1 2 -1.</_>
        <_>
          16 17 1 1 2.</_></rects>
      <tilted>0</tilted></_>
    <_>
      <rects>
        <_>
          17 1 9 30 -1.</_>
        <_>
          17 11 9 10 3.</_></rects>
      <tilted>0</tilted></_>
    <_>
      <rects>
        <_>
          17 6 8 24 -1.</_>
        <_>
          17 14 8 8 3.</_></rects>
      <tilted>0</tilted></_>
    <_>
      <rects>
        <_>
          17 8 1 3 -1.</_>
        <_>
          17 9 1 1 3.</_></rects>
      <tilted>0</tilted></_>
    <_>
      <rects>
        <_>
          17 10 2 6 -1.</_>
        <_>
          17 12 2 2 3.</_></rects>
      <tilted>0</tilted></_>
    <_>
      <rects>
        <_>
          17 11 2 4 -1.</_>
        <_>
          17 11 1 2 2.</_>
        <_>
          18 13 1 2 2.</_></rects>
      <tilted>0</tilted></_>
    <_>
      <rects>
        <_>
          17 22 6 2 -1.</_>
        <_>
          17 23 6 1 2.</_></rects>
      <tilted>0</tilted></_>
    <_>
      <rects>
        <_>
          18 2 1 15 -1.</_>
        <_>
          18 7 1 5 3.</_></rects>
      <tilted>0</tilted></_>
    <_>
      <rects>
        <_>
          18 7 14 21 -1.</_>
        <_>
          25 7 7 21 2.</_></rects>
      <tilted>0</tilted></_>
    <_>
      <rects>
        <_>
          18 12 2 2 -1.</_>
        <_>
          18 12 1 1 2.</_>
        <_>
          19 13 1 1 2.</_></rects>
      <tilted>0</tilted></_>
    <_>
      <rects>
        <_>
          18 14 4 12 -1.</_>
        <_>
          18 14 2 6 2.</_>
        <_>
          20 20 2 6 2.</_></rects>
      <tilted>0</tilted></_>
    <_>
      <rects>
        <_>
          19 6 12 15 -1.</_>
        <_>
          25 6 6 15 2.</_></rects>
      <tilted>0</tilted></_>
    <_>
      <rects>
        <_>
          19 7 1 21 -1.</_>
        <_>
          19 14 1 7 3.</_></rects>
      <tilted>0</tilted></_>
    <_>
      <rects>
        <_>
          19 11 10 17 -1.</_>
        <_>
          24 11 5 17 2.</_></rects>
      <tilted>0</tilted></_>
    <_>
      <rects>
        <_>
          19 12 2 6 -1.</_>
        <_>
          20 12 1 6 2.</_></rects>
      <tilted>0</tilted></_>
    <_>
      <rects>
        <_>
          19 13 2 2 -1.</_>
        <_>
          19 13 1 1 2.</_>
        <_>
          20 14 1 1 2.</_></rects>
      <tilted>0</tilted></_>
    <_>
      <rects>
        <_>
          21 11 2 10 -1.</_>
        <_>
          21 11 1 5 2.</_>
        <_>
          22 16 1 5 2.</_></rects>
      <tilted>0</tilted></_>
    <_>
      <rects>
        <_>
          22 6 2 10 -1.</_>
        <_>
          22 6 1 5 2.</_>
        <_>
          23 11 1 5 2.</_></rects>
      <tilted>0</tilted></_>
    <_>
      <rects>
        <_>
          22 7 2 10 -1.</_>
        <_>
          22 7 1 5 2.</_>
        <_>
          23 12 1 5 2.</_></rects>
      <tilted>0</tilted></_>
    <_>
      <rects>
        <_>
          23 0 9 7 -1.</_>
        <_>
          26 0 3 7 3.</_></rects>
      <tilted>0</tilted></_>
    <_>
      <rects>
        <_>
          23 8 2 6 -1.</_>
        <_>
          23 8 1 3 2.</_>
        <_>
          24 11 1 3 2.</_></rects>
      <tilted>0</tilted></_>
    <_>
      <rects>
        <_>
          26 0 6 7 -1.</_>
        <_>
          29 0 3 7 2.</_></rects>
      <tilted>0</tilted></_>
    <_>
      <rects>
        <_>
          30 12 1 2 -1.</_>
        <_>
          30 13 1 1 2.</_></rects>
      <tilted>0</tilted></_></features></cascade>
</opencv_storage>
